<Root>
  <ActivationFunctions>
    <Fn id="0" name="SteepenedSigmoid" prob="1" />
  </ActivationFunctions>
  <Networks>
    <Network id="586636" birthGen="4886" fitness="0">
      <Nodes>
        <Node type="bias" id="0" />
        <Node type="in" id="1" />
        <Node type="in" id="2" />
        <Node type="in" id="3" />
        <Node type="in" id="4" />
        <Node type="in" id="5" />
        <Node type="in" id="6" />
        <Node type="in" id="7" />
        <Node type="in" id="8" />
        <Node type="in" id="9" />
        <Node type="in" id="10" />
        <Node type="in" id="11" />
        <Node type="in" id="12" />
        <Node type="in" id="13" />
        <Node type="in" id="14" />
        <Node type="in" id="15" />
        <Node type="in" id="16" />
        <Node type="in" id="17" />
        <Node type="in" id="18" />
        <Node type="in" id="19" />
        <Node type="in" id="20" />
        <Node type="in" id="21" />
        <Node type="in" id="22" />
        <Node type="in" id="23" />
        <Node type="in" id="24" />
        <Node type="in" id="25" />
        <Node type="out" id="26" />
        <Node type="out" id="27" />
        <Node type="out" id="28" />
        <Node type="out" id="29" />
        <Node type="out" id="30" />
        <Node type="hid" id="781" />
        <Node type="hid" id="810" />
        <Node type="hid" id="824" />
        <Node type="hid" id="1007" />
        <Node type="hid" id="1494" />
      </Nodes>
      <Connections>
        <Con id="167" src="3" tgt="29" wght="1.343731707893312" />
        <Con id="172" src="14" tgt="27" wght="-4.3664492624779756" />
        <Con id="175" src="7" tgt="26" wght="2.9396813781931996" />
        <Con id="196" src="22" tgt="27" wght="2.2698224195482761" />
        <Con id="197" src="6" tgt="27" wght="-0.84605537264311392" />
        <Con id="209" src="23" tgt="26" wght="-6.0493899787202388" />
        <Con id="217" src="8" tgt="28" wght="5.3190901454660295" />
        <Con id="218" src="7" tgt="27" wght="-2.2995606527772918" />
        <Con id="220" src="21" tgt="29" wght="-3.1869172369468242" />
        <Con id="236" src="4" tgt="29" wght="0.51837381167811569" />
        <Con id="249" src="3" tgt="28" wght="1.2322322823280958" />
        <Con id="264" src="26" tgt="28" wght="2.7938123328015303" />
        <Con id="295" src="22" tgt="29" wght="4.3466705583527059" />
        <Con id="296" src="15" tgt="29" wght="-1.1015297308921748" />
        <Con id="307" src="29" tgt="29" wght="3.163176836133339" />
        <Con id="316" src="12" tgt="28" wght="-4.1267820871417369" />
        <Con id="320" src="15" tgt="30" wght="2.5015951728195263" />
        <Con id="325" src="27" tgt="26" wght="3.4955772809231078" />
        <Con id="372" src="28" tgt="30" wght="-1.6839381762948167" />
        <Con id="462" src="3" tgt="26" wght="1.8821296276320023" />
        <Con id="500" src="21" tgt="30" wght="2.785178541889497" />
        <Con id="594" src="20" tgt="29" wght="-8.8496997486309485" />
        <Con id="782" src="3" tgt="781" wght="-4.2513665755076318" />
        <Con id="795" src="1" tgt="781" wght="-3.3192950569917659" />
        <Con id="812" src="810" tgt="27" wght="4.4538522951866142" />
        <Con id="825" src="6" tgt="824" wght="0.898936216885839" />
        <Con id="826" src="824" tgt="810" wght="1.7756868591248869" />
        <Con id="867" src="29" tgt="824" wght="3.713273179289188" />
        <Con id="910" src="10" tgt="824" wght="-2.2780082398213692" />
        <Con id="947" src="1" tgt="810" wght="0.013180314774742283" />
        <Con id="957" src="28" tgt="781" wght="-2.5693719973787665" />
        <Con id="1008" src="1" tgt="1007" wght="-0.97083341724466654" />
        <Con id="1009" src="1007" tgt="26" wght="-7.9169295416168621" />
        <Con id="1133" src="26" tgt="1007" wght="-7.5982298479917327" />
        <Con id="1362" src="14" tgt="810" wght="14.4006381835424" />
        <Con id="1386" src="17" tgt="824" wght="-6.9910284365349735" />
        <Con id="1428" src="10" tgt="1007" wght="4.5819775035437029" />
        <Con id="1495" src="9" tgt="1494" wght="-0.88760267117157476" />
        <Con id="1496" src="1494" tgt="29" wght="6.2719388889790739" />
        <Con id="1551" src="1494" tgt="1007" wght="-2.2309837061906213" />
      </Connections>
    </Network>
  </Networks>
</Root>